digraph Tree {
node [shape=box] ;
0 [label="X[0] <= 5.45\ngini = 0.5\nsamples = 70\nvalue = [36, 34]"] ;
1 [label="X[1] <= 2.7\ngini = 0.157\nsamples = 35\nvalue = [32, 3]"] ;
0 -> 1 [labeldistance=2.5, labelangle=45, headlabel="True"] ;
2 [label="gini = 0.0\nsamples = 3\nvalue = [0, 3]"] ;
1 -> 2 ;
3 [label="gini = 0.0\nsamples = 32\nvalue = [32, 0]"] ;
1 -> 3 ;
4 [label="X[1] <= 3.35\ngini = 0.202\nsamples = 35\nvalue = [4, 31]"] ;
0 -> 4 [labeldistance=2.5, labelangle=-45, headlabel="False"] ;
5 [label="gini = 0.0\nsamples = 31\nvalue = [0, 31]"] ;
4 -> 5 ;
6 [label="gini = 0.0\nsamples = 4\nvalue = [4, 0]"] ;
4 -> 6 ;
}